{"Length": 2, "weights": [[[0.279407892418079, -0.4082007061640383, 0.8539150646664085, -0.04864723852640096, 0.7140158998625252, 0.5900608503597489], [-0.0063340020188678015, -0.08859526811226803, 0.08149654922010843, 0.26496267437072046, -0.8124352658738965, -0.10865675923093299], [-0.6790367474347833, -0.46749343246115715, -0.8953412513776372, 0.4080135828970248, 0.2294206675024626, 0.8291270756223855], [-0.6262577887024302, -0.6388563260907645, 0.18931395357487388, 0.5207709634645933, -0.0584514190658543, 0.6687843654115699], [0.7700871733433945, 0.3873416747799837, 0.7000437173748324, 0.011694598697339603, -0.34434241158694096, 0.6180524000599883]], [[-0.40441726785637655, 0.7014770738642013, 0.7100328686087016, -0.21279508233493116], [-0.026507899800673307, 0.7845677222996514, -0.3989604310276736, -0.9486327232643593], [0.6285371251382591, 0.44865313457928474, 0.08728386565886112, 0.3516030728588916], [-0.6725186932466745, -0.5267513346379608, 0.4459965904260453, -0.18160148465942216], [0.0232480266025078, -0.4881346137316844, -0.47448407978425544, 0.672891206221049], [0.5809347038883559, 0.04789849122366183, 0.30203794850292215, -0.20640866787213746]]], "biases": [[0.21436981224585958, 0.29934406940226427, 0.1331420358352905, -0.2247388204043904, -0.5303794321547333, -0.28791775416080684], [-0.3332238047530662, -0.3469007597923047, 0.5285831499025562, -0.5993718756511023]]}