{"Length": 2, "weights": [[[0.14220844558776247, -0.14391216556610562, 0.19351876072651908, -0.5698461870716122, -0.657498352958038, 0.26537161983039653], [-0.28716297356050796, 0.510542954399025, 0.3620810328062313, -0.6152956846816959, 0.8364771706271104, 0.8032205500667539], [0.5115242309640501, 0.5376339948355622, 0.2626219265044568, -0.8791580982480484, 0.8505614661841189, -0.7851981745961731], [-0.23589098877613698, -0.10390631289388746, 0.1116304291347272, -0.34245104935150106, -0.07458765602428269, -0.5427689197474674], [0.015565860745589799, -0.4719902925830456, 0.05388526383698797, -0.2889290159760999, 0.006686912413647984, -0.1295662458390067]], [[-0.5540549032169402, 0.26783495630354365, -0.6249636554792499, 0.6244062723345425], [-0.5597953167601109, 0.043280157959038945, -0.15451379161778772, 0.858409981863589], [-0.4155243059150388, 0.06899390574187869, 0.5322870744877638, 0.17696740515857043], [0.585510701200294, 0.7491473592983403, 0.14286082432176334, 0.1807091052410329], [-0.773637089840745, 0.2350728557284889, 0.6450045087387072, 0.6749930969629269], [-0.6931147426608789, 0.4423086065574302, -0.6186755127837855, 0.4370112698955074]]], "biases": [[0.33544768612086895, -0.31128064733600047, 0.4036418306631411, 0.21003416447748188, -0.4855991345522652, 0.3338960246135437], [-0.6276932569993188, 0.4381701226729744, 0.8229463789100474, 0.13370870909764238]]}