{"Length": 2, "weights": [[[0.06056297138305221, -0.09974433165499197, -0.8171961000137906, -0.5231366740537932, 0.25402337691205973, 0.2889601667227615], [0.626731553405289, -0.05721596235082775, -0.356253361600388, 0.19037236049069278, -0.46744276353813274, -0.21002947460290483], [0.8451912447764154, -0.5907923691031538, 0.17911022003060567, 0.16527674073952414, 0.8090308474868997, 0.6313279015101462], [0.5692040137756044, 0.7109039935399624, 0.6192456538121502, -0.7498824556962793, -0.5808243163608119, -0.7021668049057674], [-0.4632467552414575, 0.4952977178262676, -0.5918352967523848, -0.327904987274712, 0.7135915410853257, -0.11120467447743601]], [[-0.46265838671193726, -0.4381687425364522, -0.4407319594637873, -0.4832668835606575], [-0.6577418088468254, -0.40664236821302313, 0.447323070020928, 0.28455896420253535], [-0.06691244965132298, -0.47004683561233784, -0.8419750276882653, 0.6690379551865561], [0.10513033960059026, 0.1561995402345031, -0.6861726740911314, -0.5902145728939548], [0.23312171312945767, -0.5582884133099459, -0.7367216565350319, -0.3129273523860221], [0.7813942455161018, -0.3383590879225926, 0.07611430293980054, 0.763228922980742]]], "biases": [[-0.8243400041010346, -0.6253172605674248, 0.5170824048243571, -0.5366736391198078, 0.33116177698978566, -0.26764637435734906], [-0.5774080482205105, -0.7884427255964176, -0.5956167045720435, -0.25915520387220553]], "inputs": [[0.677, 0.84, 0.933, 0.943, 0.92], [1, 1, 0, 0, 1, 1]]}