{"Length": 2, "weights": [[[0.9040700594139279, -0.31148313936254635, 0.2841821584647293, 0.653073045589885, 0.5703705616252444, -0.8191333818207409], [0.7939186642290119, -0.06779876333269619, -0.25499644617391004, -0.8891008179362321, -0.9003234928540722, 0.6084198797145501], [-0.9440295351173169, -0.7866622937312606, -0.8086853910505887, 0.26541422866404907, -0.7824710205610317, 0.4131699326278677], [0.5815880763376828, 0.6502549093524705, -0.3405077446550624, -0.09044358477803205, -0.3993203095418907, 0.33540619213364864], [-0.1697123474244644, -0.8361697353675341, 0.8059896522880159, -0.22427430871199983, 0.27256827344683043, 0.15158423981060842]], [[0.1596640387239936, -0.9597869108887365, -0.6614568062398747, -0.11256774526031932], [-0.49666889010768545, -0.8049413633703286, -0.95102473948522, 0.14819120303338051], [0.44059812945444654, 0.7462520005714635, -0.7212170776490796, -0.14450215623385732], [-0.9741134351025926, -0.19852111006822604, 0.7516437083169194, 0.45609596960388243], [0.7486800323975384, 0.45431243510048747, 0.7585464643020778, -0.7240449931366009], [-0.6790612691924693, 0.34086193408872134, 0.5410498717702545, -0.8312546378090158]]], "biases": [[0.03510179810930891, 0.8812575932410707, 0.48963938826020215, -0.07874745475644906, -0.41019288441169377, 0.7671041779060155], [-0.3083986543771162, -0.7635274286939568, -0.5923371947081975, 0.5498895071568042]], "inputs": [[0.467, 0.023, 0.92, 0.947, 0.927], [0, 0, 0, 1, 0, 0]], "reward": 2322}