{"Length": 2, "weights": [[[-0.34946446176432155, -0.43327252854282144, -0.04038176288321885, -0.2087160563060634, -0.3879835767444732, -0.6495889424635003], [-0.009776081302313194, 0.29207219921157584, -0.3402715550577958, -0.45854249471851083, 0.10133684870746529, 0.07408971916477576], [-0.5058197760973305, 0.18881921549050062, -0.38778186613354343, -0.3169782577454711, 0.32725562585430473, -0.5058230259959393], [0.4063965659823642, -0.12793506626269402, 0.012436338296257732, 0.0011212173645691048, -0.04642000991136791, 0.04068879411523793], [0.22354454261595108, -0.40103795569486955, 0.49660576404169526, 0.5063071288927614, 0.240295077345497, 0.11345609282239959]], [[-0.07125070939429962, 0.6142066197827337, 0.730637138845718, -0.21632477003182932], [-0.8578036727869092, 0.31884099221310214, 0.22883182471059438, 0.4784917318472477], [-0.9474047606227703, -0.092239900425928, -0.7446476067757374, 0.3242909337199335], [0.4774939196937681, -0.24979102275498186, 0.8857305160726013, 0.3595020361595322], [-0.48579940688495654, 0.42347291772319584, -0.3013322813902446, -0.6849659455239573], [-0.15649931797212688, 0.42995987738203667, -0.14051105369499944, -0.37280171527506023]]], "biases": [[-0.026389883297347053, 0.47259358761358405, 0.19879598482534577, 0.1963601456610472, 0.377763571705326, -0.3327148764172685], [-0.35142476217050667, 0.49401962602911476, -0.01892788738644066, 0.4317297890487848]], "inputs": [[0.77, 0.927, 0.957, 0.95, 0.927], [0, 0, 0, 0, 0, 0]], "reward": 133.02857142857144}