{"Length": 2, "weights": [[[-0.30455071360121966, 0.32941848059906237, -0.3227418173695246, 0.3304282768884443, 0.7067508771263675, -0.024275188545251528], [-0.36971169155813005, -0.036715438132950085, -0.2682675587982641, 0.5699482676698115, 0.1150029397575355, 0.23512679212717535], [0.18583176389444903, 0.14370400675224332, 0.24305436221756854, 0.41334927942053246, 0.2905245884756218, -0.07124339645116368], [0.5796110613047826, 0.03626632373817468, -0.20052051350641525, 0.22594183065076534, 0.4155367245302503, -0.30440756515613787], [0.1267202595791764, 0.20265712281489318, -0.18462954002465748, -0.6140577446464868, -0.3369602315307788, -0.9393883325698013]], [[-0.4276937114471864, -0.043219550941101165, -0.13363545103797053, -0.40434248038406906], [-0.24250028332209697, 0.7757700578798085, 0.5846599469434294, -0.2559502296163585], [-0.4091273656159852, -0.5218573098357772, -0.3943838443960893, 0.111199904420002], [0.3461950501744443, -0.20405532510138988, 0.26372195132568543, -0.32769330160937205], [0.12660431180332787, -0.8438025755429889, -0.2692318770980987, 0.12635734713503355], [0.5487163340250165, -0.48718534800200414, -0.3408686848131507, 0.6112335524730451]]], "biases": [[0.195057040986354, 0.44336893810150224, -0.9501093439635547, 0.28998502026446765, 0.41186570145361845, -0.7402631526350331], [0.24774598720943497, -0.04889070822797783, -0.45299550337730315, 0.3266090808160167]], "inputs": [[0.003, 0.923, 0.957, 0.95, 0.877], [1, 0, 1, 1, 1, 0]], "reward": 28.457142857142856}