{"Length": 2, "weights": [[[0.5132470999113727, -0.5200970354850933, -0.8614360601483748, -0.4625326415018054, 0.17480871598386893, -0.9468353401718586], [0.685644555478341, -0.0020863518787115343, -0.8658407023706047, 0.30310309199086527, 0.8033226871373207, -0.06948435745343184], [0.5877403746365768, 0.6624615704442907, 0.8620026896785145, 0.4198343499595911, -0.41207737312729864, -0.2609588347198022], [0.6450580509357442, -0.9778852824680428, -0.5529315151207219, -0.14938302439692142, 0.8998153914183296, -0.676182706800778], [-0.43782688699612615, 0.808096499314445, 0.7517534794203347, 0.17898056386812788, 0.2037525483567224, 0.155079074000817]], [[0.6561057799488821, -0.22611088443370098, 0.06742154436086101, -0.027198938997136324], [0.5032863018297067, -0.9575758013485021, -0.7141413712947378, 0.3616581563759169], [-0.7231377072342808, 0.5558467554395907, 0.2318000831947824, -0.11357563968771123], [0.6112883429306293, -0.9664568966087184, 0.6824841488799289, -0.002497901087490595], [-0.11532169636090805, 0.7884833742278508, -0.6456331516193359, 0.7328790430358194], [-0.49981133197203453, -0.6538819168393479, 0.4561066584732574, 0.9028986120632063]]], "biases": [[-0.196059829332768, -0.11990942560498397, -0.9681678147535104, -0.5357441564407057, -0.16134977409255424, 0.779420962670685], [0.8226181661623719, -0.12728307487222912, -0.36291654682020846, 0.31243771220474237]], "inputs": [[0.903, 0.963, 0.97, 0.95, 0.89], [1, 1, 1, 1, 1, 0]]}