{"Length": 2, "weights": [[[0.07476457424492139, 0.379484451043962, -0.6994134437279437, -0.5780282126081009, -0.36346600383928984, 0.6027473427603708], [0.24772003891611144, -0.22167025043618804, 0.5542916306233118, 0.09748548524277623, -0.40792675639139636, -0.06502822188241572], [-0.29635988652990614, -0.01639963460093269, -0.13707017119703502, 0.3102677390062892, 0.07088708065365917, 0.7234666243293014], [-0.03694231394360739, -0.8119520905266304, 0.3890990348318699, 0.7152314476771819, -0.6410740428461186, -0.2056856225465004], [0.21207867932354618, 0.4551768965578691, 0.04338966900503319, 0.4939286708662774, 0.43047200211422143, -0.4449749121282251]], [[-0.4692885761945123, 0.21853853974264836, 0.6231192626254891, 0.056803620494470686], [0.6171065457781081, -0.7944524998299439, -0.29531018075673937, -0.040522452272631376], [-0.1455933768671517, 0.45481895332496614, -0.056031728191476254, 0.24558858675480733], [-0.38849581085609186, 0.06902237442735223, 0.4494014099368465, -0.400674387478715], [-0.32047245021518406, 0.12035755100007856, -0.29860602560559907, -0.25693895576932924], [0.7738486684468557, 0.08800515223011043, -0.24298931253374778, -0.26907337835468104]]], "biases": [[-0.17164489164522145, -0.04817374959031234, 0.6903378594192161, 0.4043570615435627, -0.6564606445625252, 0.47096097525048114], [-0.2680691760475391, -0.10803464872930696, -0.8250882945170576, -0.3118117641228091]], "inputs": [[0.593, 0.173, 0.667, 0.787, 0.77], [1, 0, 0, 1, 1, 0]], "reward": 205.71428571428572}