{"Length": 3, "weights": [[[-0.008738586156520345, 0.06812402356267233, 0.7567967442942893, 0.955563055408752, -0.23776215222105135, 0.20304622657837124, 0.3145519825149592, 0.5813329466177644, 0.2204754565566842, 0.9213703939418432], [-0.3669664357543396, 0.5750845765780832, 0.32682399330761136, 0.22749682350070222, -0.18079856382249804, -0.9660199661685647, -0.27257139744808345, 0.47620921353944756, -0.15248580245597343, 0.48506697804690324], [-0.2331740652868386, -0.6315289408825602, -0.36973568452288963, 0.31288437556028814, 0.11294070790357624, 0.6783339705870912, -0.1712548624052872, 0.1998385263417144, 0.7898316500617799, -0.9378302838006083], [0.579933128047929, -0.41835923593573954, -0.1346480277291664, -0.7491380551360873, 0.1382191055821489, -0.8265190284907733, 0.45581118576274693, -0.10316787286090534, -0.6306243949351742, -0.3062301710283306], [-0.19097378979899338, -0.4033691323431059, -0.7410724464289964, -0.679776527708208, 0.11244776348434748, 0.6522698276330885, -0.27392419266361534, 0.9466911653799182, -0.15847269746427606, -0.08660770937311635]], [[-0.9819484127315905, -0.8541575832568651, -0.4328815945632394, 0.4618633127309919, 0.8126369722998992, 0.7207334786906301], [-0.5646998853413117, -0.24967972899950075, -0.41776852828789424, -0.5588098395187877, 0.07254285594887255, -0.4972394886705578], [-0.23356488097541273, 0.028482769331041435, -0.3860439856147788, -0.4760062337766968, -0.2755181213076403, -0.5032074300182812], [-0.28075051604467416, 0.5874373427987687, -0.5793430314023194, 0.8876501425498129, -0.1542169056283733, 0.7329831364265154], [-0.43456341051020186, -0.4236302331732218, 0.47130465116777587, -0.9982100691353493, -0.9072700581047617, 0.9114217813908541], [0.49707069950898064, 0.48518270213975967, 0.2630680587529579, -0.8654348709711792, -0.3296118759913691, -0.16538649707129394], [0.9823255653295886, 0.8116354562118187, 0.7240120394360385, 0.8063169052992238, -0.26318710777749166, 0.7137063520898226], [0.8802113761328914, 0.0332537915152733, -0.3243108616275323, 0.7908258712031413, -0.6290963944785217, 0.8915956161500445], [0.6029969744536907, 0.4688825564998591, -0.26792186639753246, -0.41747375815110366, 0.9866700324048825, 0.9005029547169416], [0.5937357031053041, -0.6108208763263054, 0.9072151302429867, 0.5658973047535467, -0.6077620017746233, -0.4141133012295699]]], "biases": [[-0.8682757821182121, -0.9212047259509761, 0.6596004741698169, 0.6896659235565101, 0.19085031654464246, -0.9254573231693775, 0.4664746819142338, -0.9348034238778584, -0.39462792405523484, -0.21024714714043435], [0.49103982939639357, -0.532125257035851, -0.20049276670447824, -0.24311141408417325, 0.4051558853176036, 0.6084147095133026]], "inputs": [[0.5, 0.43, 0.943, 0.947, 0.913], [1, 0, 0, 0, 0, 1, 0, 1, 1, 0]], "reward": 110.4}