{"Length": 2, "weights": [[[0.3365805979118961, -0.11633018253996386, 0.5964895766627465, -0.43807949490497866, 0.8386758113915738, 0.9310508223427492], [0.4476178380210447, -0.5345914887319754, 0.5424572438783188, 0.06280178749306864, -0.21266583274605755, 0.16371702539034882], [-0.6107985507576756, -0.42858830499547595, 0.6470899448384935, -0.5610513597455755, 0.534668709816136, -0.23531954704327718], [-0.9732304805760934, 0.8991652152599681, -0.9668360057291676, -0.7334846550502667, -0.4708505786124966, -0.15240329828707755], [-0.8906265837125626, 0.5380886242544032, -0.782946496209717, -0.04720894442755408, -0.18364795475027962, 0.5740007152663329]], [[0.26926139487890577, 0.16830990772168808, -0.6048391228770178, -0.5863488394386691], [0.12228336394543149, 0.7843857487933381, 0.6408872784556234, 0.6361608363211162], [0.2624128122711269, 0.05906040044392746, 0.04834965237434652, 0.39694400755790005], [-0.18363478361879082, -0.6547073902080185, 0.912340391987037, -0.7023633910321205], [0.4061815734628147, -0.2562131581787097, 0.11456466158804113, 0.13695968548847492], [-0.7684203348873533, -0.2115425471041963, -0.8373038749354977, 0.8473979727032401]]], "biases": [[-0.7763283281589808, 0.45481911718191803, -0.15797908167420838, 0.680255890170131, -0.2380963673240044, -0.5938636569426672], [-0.10680545553145548, 0.17836424044005028, -0.8692116627102153, -0.8258024153044154]], "inputs": [[0.91, 0.953, 0.957, 0.923, 0.783], [0, 0, 1, 0, 1, 1]]}